digraph Tree {
node [shape=box] ;
0 [label="Ujian <= 0.5\nentropy = 0.918\nsamples = 6\nvalue = [4, 2]\nclass = Tidak Lulus"] ;
1 [label="entropy = 0.0\nsamples = 3\nvalue = [3, 0]\nclass = Tidak Lulus"] ;
0 -> 1 [labeldistance=2.5, labelangle=45, headlabel="True"] ;
2 [label="entropy = 0.918\nsamples = 3\nvalue = [1, 2]\nclass = Lulus"] ;
0 -> 2 [labeldistance=2.5, labelangle=-45, headlabel="False"] ;
}